-0.061018
-0.021073
-0.145575
-0.031654
-0.025626
0.054061
0.076180
0.046345
0.016712
-0.036239
-0.077425
-0.053284
0.057814
0.059274
-0.092974
0.035885
0.083426
0.051169
-0.120338
-0.129811
-0.027828
-0.101956
-0.171209
0.427473
-0.148409
-0.369313
-0.208889
0.002268
0.031111
-0.075322
-0.257300
-0.032118
0.171861
0.134090
0.018289
0.224488
-0.135013
-0.006574
0.128644
0.076601
0.099038
0.031854
0.248053
-0.197970
0.055755
-0.138065
-0.086347
0.134732
0.118456
0.080054
-0.160064
-0.159138
0.101924
0.016602
0.003472
0.181632
-0.239263
0.076103
-0.061209
-0.028088
-0.046865
0.002672
-0.189282
-0.301452
0.051975
0.101874
0.032429
0.124436
0.375846
0.108830
0.030216
0.190394
-0.339720
-0.046068
-0.081337
-0.019192
0.077844
-0.205564
-0.085409
-0.224125
0.018668
0.078588
-0.203170
0.119050
0.222489
0.457058
0.006603
0.081293
0.198936
-0.308951
-0.143106
0.170622
0.318500
0.060827
0.300946
-0.226360
0.076284
-0.169101
-0.086066
-0.253503
0.063265
0.062219
-0.410274
0.032067
0.077916
0.236745
0.000048
0.170018
0.275974
0.059719
-0.286318
0.203156
0.183634
0.060138
-0.212082
0.144622
-0.046943
0.067587
-0.093576
-0.013546
-0.202840
-0.301242
0.028433
-0.193235
0.015012
0.219212
0.127582
-0.007742
-0.151941
0.086044
-0.344061
0.155032
-0.042898
0.085334
0.153112
-0.118827
0.169066
0.323188
0.102137
0.197064
0.050200
-0.043497
0.056565
0.111434
-0.079040
0.513601
-0.294371
0.234521
0.184902
0.116143
0.035154
0.388678
-0.272790
-0.001932
-0.225513
0.299742
-0.089008
-0.020044
-0.131067
-0.210699
-0.118291
0.140701
0.116325
-0.019398
-0.135479
0.040469
-0.049366
-0.029888
0.089382
-0.032721
-0.076361
0.012421
-0.107651
-0.081850
0.054447
-0.083462
-0.005366
0.060836
0.013850
-0.180521
-0.170227
-0.195098
-0.243488
0.134341
-0.231345
0.149460
-0.180940
0.067404
0.168605
0.271401
0.085901
-0.143131
0.239188
-0.211538
0.011701
0.056673
0.094969
0.179186
0.119210
-0.221989
0.116008
0.265467
-0.083904
-0.140441
-0.138652
-0.391490
0.211965
0.088553
0.023949
0.022545
0.058282
-0.085292
0.005501
-0.078291
-0.206399
-0.107764
0.051364
-0.091821
0.100921
-0.078988
0.450515
-0.283129
0.031488
0.120769
-0.552076
0.194709
-0.171845
-0.053471
0.167905
-0.284102
0.039090
-0.028516
-0.110184
0.018158
-0.058975
0.046071
0.255671
0.094478
0.158672
-0.077729
-0.023827
-0.016999
-0.360786
-0.031260
0.262070
-0.012507
0.043057
0.285852
0.113875
-0.294918
0.024299
-0.046131
0.044306
-0.067526
0.394764
0.161725
0.055351
0.153518
0.093434
-0.186282
0.141871
0.059759
0.251654
-0.055841
0.234812
-0.114402
0.004374
-0.092218
-0.159866
-0.004999
-0.022570
-0.052046
0.064140
0.045630
0.019642
0.233203
-0.247522
-0.145485
0.264293
0.105577
-0.030098
0.022407
-0.044232
-0.123043
-0.101847
0.008743
-0.031652
-0.309875
0.089854
-0.136558
-0.061234
0.251905
0.105013
0.506275
0.004036
0.225298
0.392508
-0.164847
-0.226918
-0.009711
-0.204234
0.382968
0.549603
-0.033369
-0.231776
-0.154673
0.157787
-0.019089
-0.170341
0.108498
-0.227330
0.085176
0.074117
0.005819
-0.160004
0.431622
-0.588462
-0.188550
-0.274153
-0.055682
-0.094213
0.015702
-0.045532
0.111575
-0.049584
0.147485
-0.069235
0.017679
0.011287
-0.115632
-0.035713
0.119349
0.087883
-0.049811
0.009404
0.114949
-0.189818
0.041472
0.158400
0.007980
-0.086066
0.019387
0.131091
0.041680
0.028032
0.009099
-0.041362
-0.079673
-0.238001
-0.153049
-0.126781
-0.117017
0.027174
-0.277881
0.168247
0.156785
-0.068467
0.039454
0.034438
-0.041327
0.009006
-0.181706
-0.203896
-0.034253
-0.241955
-0.093685
-0.084371
0.095679
-0.033000
-0.261957
0.057646
0.094224
0.160614
0.241384
0.166378
-0.112799
0.098970
-0.327735
-0.224805
-0.193419
-0.093871
0.220463
-0.075987
0.035944
0.081734
0.007517
0.005441
-0.308631
-0.254620
-0.049335
-0.373807
-0.226877
-0.031927
-0.167114
0.084421
0.246479
-0.129378
-0.024080
0.130970
-0.094127
-0.039576
-0.072011
-0.416830
0.354636
0.016509
0.210012
-0.115469
-0.112363
-0.140925
-0.371640
-0.108990
-0.039180
0.174454
-0.206727
0.476164
-0.111619
0.159229
-0.005773
0.165043
0.033942
0.070600
0.211761
0.351054
0.212029
-0.225693
-0.178947
0.048975
-0.080268
0.124275
0.049897
-0.249314
-0.044719
-0.346391
0.150763
-0.293611
0.190424
0.278339
-0.035321
0.096188
0.160447
0.180761
-0.111721
-0.136769
-0.123509
-0.598516
-0.089063
0.097773
0.078609
0.228626
0.393262
-0.115028
-0.111834
0.071446
0.084935
0.165183
0.232167
-0.264844
-0.179559
0.151692
-0.116744
-0.152433
0.362484
0.127702
0.017822
-0.313936
0.321681
0.189931
-0.104274
-0.187909
-0.133145
-0.011629
0.146751
0.221353
0.148097
-0.197370
0.448321
0.028413
-0.075406
-0.256420
-0.277068
-0.092865
-0.072438
0.226621
-0.027885
-0.035440
0.052527
0.017067
-0.131296
-0.100876
0.144472
0.045513
-0.004703
-0.175715
0.050426
-0.154861
-0.056059
-0.304121
0.194134
0.198712
0.263536
0.041508
-0.140069
0.241026
-0.155261
0.074964
-0.011222
0.059867
-0.116760
-0.099938
-0.025389
0.118984
0.023119
-0.273927
-0.357477
0.000427
0.100696
-0.029660
-0.130482
-0.272178
-0.392167
-0.119376
-0.246539
0.033923
0.313966
0.244113
-0.424480
0.092948
0.251115
-0.087216
0.107569
-0.027455
0.262226
0.091076
-0.023360
0.076007
-0.147199
-0.259713
0.020515
0.131348
0.101153
0.349769
-0.323481
0.117550
0.054882
0.494441
0.080065
-0.114801
0.002486
0.045938
0.211770
-0.250406
-0.161887
0.172250
-0.061158
0.293558
-0.128406
0.093650
0.146560
0.407700
-0.152720
-0.096287
0.258113
0.020832
-0.042419
0.018193
0.241672
0.036455
0.125679
-0.182139
0.141643
0.074988
0.144485
-0.041683
-0.032788
0.341390
-0.102268
0.002639
-0.060102
0.212571
0.191970
0.167302
-0.319712
-0.093925
0.031222
-0.040696
0.205959
0.145842
0.047153
0.188777
-0.062246
-0.135380
0.023666
-0.170251
-0.012340
-0.014223
-0.176959
0.251043
0.620113
-0.292960
-0.101128
0.296183
-0.032866
-0.485801
0.539216
0.484034
-0.149027
0.221583
-0.229139
0.027034
-0.737663
-0.083653
0.080258
0.313662
-0.361711
-0.111780
0.057355
-0.268851
0.335546
0.286429
-0.186701
-0.321851
0.390591
0.430433
0.490085
-0.330029
0.021027
0.262726
-0.804255
0.365388
0.023515
0.097400
-0.310534
-0.104325
-0.043026
-0.117328
0.490235
-0.024682
0.335133
0.113551
0.222646
-0.063804
0.053463
0.109666
-0.124733
0.120563
-0.143440
-0.020720
-0.145002
0.159537
-0.105309
0.087971
-0.005597
0.084938
0.036734
0.096067
0.013680
-0.235092
0.228056
-0.033983
0.321416
0.119279
0.140270
0.183053
-0.180039
-0.138593
0.114011
0.090062
-0.027046
-0.228734
0.000094
-0.069387
-0.108767
-0.067246
-0.155389
-0.226971
-0.132808
-0.039971
-0.088315
-0.064113
0.055753
0.036232
0.030368
0.142897
0.078579
-0.219089
-0.200824
0.076092
0.001750
0.138284
-0.393278
-0.058817
-0.094734
0.083852
0.237893
-0.111877
0.087884
0.014845
0.056636
-0.144457
-0.054639
-0.072944
0.109828
0.017261
0.064131
-0.278026
-0.086554
-0.326256
-0.013443
-0.170263
0.270528
-0.111103
-0.103803
0.022587
-0.053631
0.119880
-0.439475
0.210740
-0.002351
0.191190
-0.227947
-0.193508
-0.008282
-0.131047
0.036758
0.209769
0.154090
0.218086
-0.042162
-0.154966
-0.093996
-0.144847
0.085818
0.044713
-0.279607
0.076581
0.194614
0.012643
-0.208162
0.097996
-0.029255
0.120125
-0.288525
0.165168
-0.144636
0.274299
-0.328681
0.128467
0.153093
0.076279
-0.199772
0.005997
-0.084898
-0.135006
0.452808
-0.509504
-0.381950
0.132548
0.150832
-0.206916
0.239197
-0.143698
0.017880
0.379141
0.095561
0.053935
-0.005008
-0.008282
-0.258563
0.119490
-0.294163
-0.062536
-0.064059
0.328580
-0.507632
0.032354
-0.186339
-0.333523
0.130720
0.189243
-0.208397
0.381567
-0.045569
-0.113061
-0.010051
-0.175667
0.591382
0.345251
-0.254682
-0.126495
0.546393
-0.223610
-0.630570
-0.177203
0.070048
0.345298
0.094910
0.612376
0.018773
0.154727
-0.061383
-0.051810
-0.053752
-0.044183
-0.132399
-0.151309
0.097303
0.024801
-0.099163
-0.139829
-0.093341
0.060336
-0.056197
0.002505
0.024388
-0.147147
0.126159
-0.247657
0.273423
0.200113
0.057122
-0.137422
0.277400
0.030411
-0.082161
-0.190658
0.278394
0.189805
0.245219
-0.322174
-0.151886
-0.235978
0.036295
-0.154701
-0.015893
-0.101955
-0.103762
0.309296
-0.037850
-0.091296
0.106733
-0.017998
-0.104129
0.376138
0.189050
0.023368
-0.086198
0.107604
0.128533
0.035121
-0.098610
0.076002
0.039519
-0.226364
-0.097761
-0.164068
-0.031999
0.113413
-0.202521
0.094570
0.104133
0.096102
-0.009201
0.026707
-0.099350
0.118174
-0.290270
-0.179567
0.020371
0.096317
0.145794
0.137811
0.060366
-0.019221
0.044980
-0.112239
0.163060
-0.297748
0.088225
-0.038334
-0.183586
-0.124088
0.270134
0.049694
0.087839
-0.070927
-0.050070
-0.193873
0.080415
-0.247633
0.186843
0.079551
-0.069177
0.025934
-0.074771
-0.162730
-0.154091
0.117884
-0.312437
0.086594
0.189915
-0.226020
0.100596
-0.101317
0.060414
-0.180680
-0.124167
-0.064029
0.016637
0.067490
0.102022
0.270770
0.139071
-0.385438
-0.140454
-0.098475
-0.149031
-0.550233
-0.073743
-0.187124
0.187476
-0.064475
0.238276
0.067071
-0.120696
0.559029
-0.199425
0.115015
0.040737
0.283772
0.139419
-0.198693
0.147214
-0.493327
-0.174922
-0.329793
0.049651
0.269692
-0.158593
-0.505139
-0.086854
-0.069773
0.162058
-0.030764
0.357601
-0.440557
-0.127842
0.156543
-0.149030
-0.116126
-0.233955
-0.305264
-0.274195
-0.067659
-0.158908
-0.053680
-0.387104
0.169290
0.451797
-0.181672
0.354264
-0.029109
-0.031542
-0.043737
-0.034694
-0.026490
0.075554
0.075162
0.001945
0.079802
-0.027879
-0.008078
0.041774
0.175761
-0.048059
0.186305
-0.096953
-0.117620
-0.034074
-0.098377
0.082222
0.214692
-0.180850
-0.037540
0.088183
-0.081782
0.137215
0.136693
0.119968
0.018762
-0.306314
0.063394
-0.258981
-0.244387
-0.002771
-0.277999
-0.241993
-0.134239
-0.051644
-0.097571
0.136534
0.188696
-0.384977
0.133422
-0.025672
0.044934
-0.000797
-0.062521
-0.171642
0.053055
0.187944
0.049472
-0.107664
0.118023
-0.069867
-0.097172
-0.346679
-0.452836
0.052702
0.148842
-0.308480
-0.164138
-0.018555
0.046574
0.242174
0.225998
-0.212127
-0.049588
0.003212
-0.189221
-0.005821
0.134864
0.146201
-0.002787
0.126091
0.111573
0.249718
-0.142448
-0.038704
0.014177
-0.114554
-0.141542
0.022264
-0.140310
0.058128
-0.212621
-0.078733
-0.077834
0.123481
-0.142090
0.245597
0.311040
0.074023
-0.135747
-0.232558
-0.134828
0.225234
0.341896
0.003222
-0.346542
0.147690
0.193038
0.310399
-0.232594
-0.276933
0.119920
-0.040647
0.095824
-0.053314
-0.013111
0.147222
0.410946
0.071978
-0.127189
0.397778
-0.021113
0.297233
-0.045688
-0.059494
-0.254883
0.043056
0.091413
-0.077399
0.578761
-0.393324
0.122754
0.164912
0.261338
-0.227046
0.060752
-0.178219
-0.402764
-0.035755
0.014943
0.112949
-0.120247
-0.120164
0.036801
-0.338577
-0.326660
0.162712
0.074260
-0.002380
0.280778
0.429412
-0.034011
0.090339
-0.304143
-0.133124
0.234200
0.301819
0.029520
-0.475730
-0.298296
0.018506
0.096751
-0.125291
0.152312
0.350960
0.012555
0.137818
0.053538
0.051659
0.048572
0.062457
0.133699
-0.007154
0.037078
0.129353
-0.134283
-0.037222
-0.042179
0.040015
0.056758
0.076915
-0.038379
0.043509
0.122034
-0.116460
-0.006497
-0.009630
0.066638
0.041671
-0.164635
0.012553
-0.033442
-0.056443
0.208927
0.122728
0.102352
-0.017617
-0.159206
-0.109599
-0.086418
0.056263
-0.094849
-0.220458
-0.076836
0.000228
0.324303
0.075746
-0.199602
0.201443
-0.026781
0.150592
0.254548
-0.254228
-0.004662
0.079477
-0.031389
0.140636
0.057778
0.065424
-0.015570
-0.037225
-0.137684
-0.092454
-0.022168
0.081123
-0.166244
-0.002457
0.097301
-0.067496
0.244161
0.164351
-0.002148
0.172771
0.108574
0.063039
-0.001071
0.079085
0.228669
0.112285
0.002150
-0.050333
-0.079438
0.078594
-0.011474
0.013453
0.084776
0.057633
0.064429
-0.119050
-0.109018
0.253096
0.068232
-0.154413
-0.165905
0.048661
-0.286600
0.384358
0.049958
-0.066296
-0.265300
0.020587
-0.072187
-0.214918
-0.044548
0.074305
0.055679
-0.007660
0.279054
-0.048306
-0.150847
0.283105
-0.422743
0.039362
-0.089425
-0.026178
-0.174319
-0.142412
-0.094965
-0.036662
0.103944
0.177361
0.128168
0.074126
0.100553
-0.083721
0.032929
-0.125945
-0.111701
-0.002574
0.062848
0.019822
0.099239
-0.172449
0.034937
0.052755
-0.424459
-0.152513
-0.212326
-0.214666
-0.007138
-0.285798
0.219853
0.029770
-0.209356
0.126677
-0.106204
0.310912
0.062008
-0.308922
0.193744
0.082960
0.387961
-0.123070
0.238267
0.301277
0.176854
0.253352
0.481914
0.137133
0.024833
-0.260219
0.064057
0.070761
-0.169403
-0.216985
-0.099720
0.038961
-0.009020
-0.001659
-0.000317
0.007951
-0.002430
0.003716
0.009873
0.002997
-0.009426
-0.003589
-0.001921
0.009452
-0.002191
0.001137
-0.003813
-0.000260
2.206144
2.077268
1.859299
2.254356
1.791467
2.043305
2.181323
2.070003
1.922689
2.090447
2.189342
2.221150
2.380673
1.859070
1.922075
1.867039
0.025989
-0.103393
-0.082123
0.174589
-0.013005
-0.092451
0.016009
-0.012181
-0.078885
-0.028263
0.036559
0.080007
-0.059923
0.096848
-0.171926
-0.068924
0.405682
-0.199726
-0.066111
0.224544
0.298869
0.005544
0.036405
0.155806
-0.165127
-0.108526
0.014610
-0.101337
0.176817
-0.106904
0.142377
0.040060
2.182236
2.559905
2.349375
2.168417
1.576639
3.053750
1.680151
3.156801
1.804275
2.193158
1.947886
2.030881
3.735018
2.108749
2.326061
1.564226
0.218867
0.176945
0.353916
0.096550
0.489064
0.393395
0.093069
0.219721
-0.107710
-0.318825
-0.433448
0.041613
0.128958
0.295675
-0.191029
0.203236
0.065609
0.339028
-0.271375
0.038824
-0.211138
-0.059394
0.020356
-0.306362
0.006044
-0.276810
-0.412232
0.019149
0.210376
0.231209
-0.256927
-0.264810
0.153441
-0.108862
-0.147190
-0.230822
0.129112
-0.020396
0.344388
-0.212686
0.183158
-0.149079
-0.183820
0.305153
-0.073152
0.102332
0.188190
0.513307
0.022709
-0.304860
0.220380
0.058536
-0.346629
-0.218456
0.456996
0.001128
0.114059
-0.102439
0.287627
0.142443
0.227008
-0.287695
0.280387
-0.194807
0.234833
-0.148185
0.016193
-0.207379
-0.153300
-0.308806
0.522953
0.569123
-0.363242
-0.313797
-0.197251
-0.084590
-0.089040
0.272566
0.232087
0.155909
0.217867
-0.006956
-0.161793
-0.018737
-0.495908
-0.270485
0.080228
0.237452
-0.075850
0.154723
0.067946
-0.058338
-0.009868
0.420427
0.028617
0.534388
0.051846
-0.323117
-0.045406
-0.012908
-0.405404
-0.376734
-0.300425
0.320838
0.039771
-0.368830
0.014376
-0.134197
0.044110
0.361274
-0.170512
-0.323618
0.144767
-0.162312
0.244959
0.007702
-0.070644
-0.292318
0.269844
-0.290920
-0.225424
-0.450232
-0.331699
-0.145112
-0.136102
0.029486
-0.040744
0.049731
-0.286365
-0.740746
-0.526972
0.114296
0.436409
0.039408
-0.286529
-0.531985
-0.084725
0.614676
0.376186
-0.323755
0.014951
0.265689
0.204728
0.182595
0.215981
0.081704
0.125076
0.005370
0.146696
-0.170042
0.302510
0.170547
0.160960
0.006645
0.095010
-0.358164
0.318821
-0.148871
0.217245
-0.334373
-0.546655
0.191367
0.012046
-0.044875
0.135473
0.103782
-0.668870
-0.342873
0.363252
-0.235505
0.122536
0.421410
-0.099890
-0.303588
-0.612827
0.326063
0.183571
0.011744
-0.154201
0.119796
-0.173158
-0.342887
0.191785
0.232816
-0.254121
-0.308902
-0.083368
0.379776
-0.070248
0.235603
-0.235743
-0.212505
0.230967
0.264820
-0.101401
0.150217
0.209363
0.403506
0.319686
-0.504102
-0.497939
-0.114735
0.098670
-0.401838
-0.154670
0.092526
-0.584183
0.112615
-0.011042
0.196167
0.128021
0.098291
-0.149058
-0.119463
-0.342355
0.188422
0.126579
0.057077
-0.019395
-0.096367
0.082180
-0.059709
-0.319100
-0.003419
-0.613919
0.426495
0.033623
0.009008
-0.195761
0.046988
-0.374456
-0.430237
-0.311239
-0.882798
0.304752
-0.065066
0.157422
0.060223
0.143266
-0.129469
-0.144403
-0.261094
0.218259
0.093621
-0.294653
0.137473
0.197382
-0.072686
0.199441
-0.159646
0.268326
-0.024571
0.567449
0.536322
0.279987
0.089333
-0.086220
-0.024327
-0.029142
-0.518770
0.513098
-0.010711
-0.234936
-0.237824
-0.109574
-0.055839
0.165600
0.327885
-0.107498
-0.327250
-0.050185
0.002683
-0.130220
0.041773
-0.348111
-0.098242
0.020091
0.049761
0.425707
0.671237
-0.261845
-0.131567
0.080200
0.155767
0.268935
-0.150605
-0.275775
0.116729
-0.019941
0.170803
0.293166
0.203704
0.208678
0.511904
0.175628
-0.463779
-0.118225
-0.106343
0.076533
-0.021254
0.839467
0.390673
0.214212
0.104450
-0.232958
0.159840
0.045780
-0.078694
0.070958
0.395766
-0.062569
0.224210
-0.183638
-0.445828
0.232083
0.189753
0.238499
0.593984
0.126040
-0.086155
-0.565343
-0.041324
0.321052
0.050571
0.500264
0.296144
-0.116401
0.124752
-0.219520
0.073228
0.019094
0.234515
-0.234039
0.078237
-0.545006
0.562317
-0.020048
-0.471167
0.422849
0.479564
0.967096
0.515149
0.436483
-0.213572
-0.315632
0.073156
0.075755
0.104242
-0.143233
0.699549
-0.624741
0.669505
-0.100327
-0.297382
-0.517927
0.023045
-0.324869
-0.390205
0.312909
-0.409417
-0.089308
-0.221484
0.224162
-0.016989
0.103952
0.313913
0.008934
-0.324486
-0.480205
0.539627
-0.299920
-0.550080
-0.416799
-0.277844
-0.399069
-0.474141
-0.039441
-0.180767
0.307041
0.027451
0.152516
-0.270670
0.341498
-0.679469
0.065124
0.177829
-0.232268
-0.297365
0.646843
0.541343
0.382255
0.227297
0.132076
-0.162522
-0.107028
-0.244768
0.071904
0.166952
-0.348390
-0.149300
0.046132
0.055363
-0.114241
-0.080980
0.402417
0.660594
-0.219151
0.042596
-0.159137
-0.174434
-0.272359
0.063810
0.384269
0.658435
-0.025148
0.179296
-0.134852
0.436441
-0.157327
-0.152701
0.435697
-0.120105
0.349226
0.332171
0.199547
-0.378400
-0.300049
0.341169
-0.107009
0.347191
-0.150665
-0.175607
-0.075835
-0.405300
0.151566
0.123198
0.299377
0.021110
0.058240
0.224355
0.063055
-0.035393
-0.374311
-0.141399
-0.011534
-0.059484
-0.534526
0.389253
0.037058
-0.146756
0.035257
-0.036938
-0.089806
-0.067692
0.237497
0.171526
-0.194292
0.076757
0.034108
-0.043704
0.101189
0.019788
-0.707174
-0.417391
0.566799
0.037855
0.489516
0.572241
0.423751
0.467176
-0.079531
-0.145537
0.317813
0.072433
-0.311898
0.417719
0.218101
0.178338
-0.301405
0.502527
-0.275349
-0.106963
0.190840
0.029744
-0.175028
-0.031828
-0.327945
0.245728
0.293558
0.698243
-0.148964
-0.201264
0.228869
-0.246626
0.068301
0.250465
0.349214
-0.462171
0.345562
0.087886
0.470156
0.747989
-0.069960
-0.398567
0.757583
0.150189
-0.001976
-0.087783
0.460786
0.043743
-0.354227
0.360865
-0.452910
-0.034047
-0.139436
-0.247451
-0.106695
-0.053383
-0.246271
0.013280
-0.495844
-0.065154
-0.299360
-0.074292
-0.378596
-0.741007
-0.134591
-0.317769
0.553679
-0.571152
0.290091
-0.005556
0.197765
-0.044688
0.583532
-0.009081
-1.089849
-0.069520
-0.233848
-0.592265
-0.494498
-0.114398
-0.423789
0.206539
-0.186088
-0.459382
-0.304285
-0.175535
-0.252596
0.093892
-0.142948
0.311114
-0.527197
-0.204985
-0.048049
-0.334757
-0.502953
-0.643583
0.333571
-0.265095
-0.620104
0.030430
-0.431989
-0.426235
-0.276669
-0.777038
0.113287
0.509384
-0.780744
0.147410
-0.336104
-0.103733
-0.454024
-0.386968
-0.055306
0.079487
-0.021096
-0.010623
-0.006417
-0.035154
0.353236
0.442145
-0.005710
-0.213521
1.270814
1.357901
0.935068
1.125008
1.378334
1.151809
1.321265
1.386076
-0.045606
-0.161679
0.132499
-0.075427
0.068761
-0.006287
0.037465
0.049179
0.174285
0.341004
0.038482
-0.025657
0.490233
0.138636
0.270230
0.280183
0.006948
-0.349460
0.456881
0.122589
0.535662
0.010062
-0.249507
-0.541604
0.096352
-0.278518
-0.503756
0.406362
0.282602
0.150340
0.619123
0.184950
0.116211
0.567605
0.119569
-0.297094
0.079893
0.441416
0.291110
0.137650
0.697347
-0.904246
0.507515
0.932048
-0.776081
-0.248256
0.495073
0.889913
-0.838016
-0.774636
0.216174
1.190890
-1.057817
1.197149
-0.585069
1.097513
0.098012
-0.728198
-1.341067
0.631974
1.212799
1.126554
-0.330347
-0.687458
0.282607
0.998602
-0.997762
0.000024
0.908129
-1.260647
0.993050
-0.928719
0.339875
-0.050381
-0.985368
1.320492
-1.599664
0.244280
0.421824
-0.125300
-0.900066
1.171341
-0.639471
0.935326
-0.991610
0.949366
-0.376521
-1.000432
-0.077476
-0.030732
0.110455
